{"model_data": {"model": "SimpleRNN", "input_size": 1, "skip": 1, "output_size": 1, "unit_type": "LSTM", "num_layers": 1, "hidden_size": 12, "bias_fl": true}, "state_dict": {"rec.weight_ih_l0": [[0.05449635162949562], [-0.2977569103240967], [-0.16417862474918365], [0.3076331913471222], [0.027968788519501686], [-0.6951785087585449], [-0.04003871604800224], [0.43701818585395813], [-0.3509763479232788], [0.03923443704843521], [0.036839280277490616], [-0.025876959785819054], [-0.09563714265823364], [0.5677129626274109], [-0.5792019963264465], [0.34820878505706787], [-0.12253743410110474], [0.3918706774711609], [-0.3122597336769104], [0.09158316999673843], [-0.12208046019077301], [0.19749487936496735], [-0.07323122769594193], [0.14928637444972992], [-0.5689988732337952], [-0.23720389604568481], [0.1416126787662506], [-0.8517387509346008], [-0.979956328868866], [0.12027422338724136], [0.20445005595684052], [0.9553058743476868], [0.9669640064239502], [-0.3746691644191742], [1.7293953895568848], [0.5561236143112183], [0.02611997164785862], [0.017237313091754913], [-0.04079129174351692], [0.16046923398971558], [-0.019833147525787354], [-0.17447753250598907], [0.05234070122241974], [0.23008392751216888], [-0.04402606561779976], [0.2959446609020233], [0.005878385156393051], [-0.03886595368385315]], "rec.weight_hh_l0": [[-0.035041458904743195, 0.17082974314689636, -0.2783142030239105, -0.38478443026542664, -0.08920891582965851, -0.2695954740047455, -0.07732922583818436, -0.15274189412593842, -0.2596735954284668, -0.12370415776968002, -0.012602527625858784, -0.13852979242801666], [0.3385128676891327, 0.14929457008838654, 0.21652883291244507, 0.3615775406360626, -0.16956698894500732, 0.1809496283531189, 1.0704150199890137, -0.9373273849487305, -0.20904295146465302, 0.6404298543930054, -0.1710963249206543, 0.7490139007568359], [-0.24831463396549225, -0.05932435020804405, -0.354903906583786, -0.005607152357697487, 0.12085574865341187, 0.08321621268987656, 0.4496098458766937, -0.10913236439228058, 0.0060282256454229355, 0.16972334682941437, -0.059435129165649414, -0.3188660442829132], [0.11447851359844208, -0.03170895203948021, -0.25993889570236206, 0.2870364785194397, 0.2583704888820648, -0.09017784148454666, -0.19332079589366913, 0.05207620561122894, 0.21211887896060944, -0.41633346676826477, 0.17061953246593475, -0.37209293246269226], [0.10635251551866531, 0.050603967159986496, -0.11639152467250824, -0.05057890713214874, 0.02990853600203991, -0.5264954566955566, -0.44386935234069824, 0.4827656149864197, 0.10459095984697342, -0.32526615262031555, 0.0072745028883218765, -0.443196564912796], [0.10825600475072861, -0.39980050921440125, 0.21283277869224548, 0.38713330030441284, 0.2649710476398468, 0.5013287663459778, 0.6014564633369446, -0.5470657348632812, -0.8171289563179016, 0.8262530565261841, -0.02656325325369835, 0.5989858508110046], [-0.03066873364150524, -0.18163734674453735, -0.10686498135328293, 0.19819673895835876, 0.25100886821746826, 0.03185218945145607, 0.2166811227798462, -0.42560750246047974, 0.028339248150587082, 0.28297096490859985, -0.11125411093235016, -0.04273025318980217], [-0.09517951309680939, 0.23355627059936523, -0.39466702938079834, -0.0427493192255497, -0.16234180331230164, 0.3702552616596222, 0.3868863880634308, 0.19568301737308502, 0.41232866048812866, 0.14084210991859436, 0.036806102842092514, -0.46225231885910034], [-0.22131472826004028, 0.08483792841434479, -0.48055994510650635, 0.05218125879764557, -0.01118430681526661, 0.08404810726642609, -0.006346316542476416, -0.1063571572303772, 0.41267135739326477, 0.7204385995864868, -0.1576794683933258, -0.6162121891975403], [-0.056104738265275955, 0.2953185439109802, -0.5848334431648254, -0.2752181887626648, -0.08484207838773727, 0.11129353940486908, 0.16485373675823212, -0.6770288944244385, 0.3858635723590851, -0.7200899124145508, -0.19902107119560242, -0.11547663062810898], [0.007702425122261047, -0.03773461654782295, -0.3972800374031067, 0.1062290146946907, 0.12512826919555664, -0.13795578479766846, -0.1899690479040146, 0.17960712313652039, 0.12342728674411774, -0.18365833163261414, -0.13497526943683624, -0.362504243850708], [0.05928962305188179, 0.058193180710077286, -0.4091300368309021, -0.096744604408741, 0.20627674460411072, 0.3303651213645935, 0.026137979701161385, -0.4090563952922821, 0.10435143113136292, -0.1852560192346573, -0.1022145226597786, -0.28698667883872986], [0.2239501178264618, -0.1609717756509781, -0.32885727286338806, -0.3668162226676941, -0.06213812902569771, -0.6073501110076904, -0.1982804536819458, 0.026337500661611557, -0.15290099382400513, -0.2208452969789505, -0.08619657158851624, -0.05934224650263786], [-0.14962393045425415, 0.2909642159938812, 0.2591283917427063, 0.429384708404541, 0.006732514593750238, -0.3359724283218384, -0.5559298396110535, 0.6624079346656799, 0.6214905977249146, -0.5490984320640564, -0.02691853605210781, -0.9233658313751221], [-0.10911671072244644, -0.32030993700027466, -0.36596813797950745, -0.020902128890156746, -0.1663607954978943, -0.2856728434562683, -0.48727303743362427, 0.9345875382423401, -0.054847508668899536, -0.4511550962924957, -0.08395999670028687, -0.28482896089553833], [0.09514755010604858, -0.3233632743358612, 0.027853060513734818, 0.26105621457099915, 0.09629817306995392, 0.08383883535861969, -0.06356850266456604, -0.12119335681200027, 0.03916766494512558, -0.45242932438850403, 0.5741255283355713, 0.16895446181297302], [-0.06431104987859726, 0.00641105230897665, -0.5989997982978821, -0.012621548026800156, 0.06414256244897842, -0.0536138080060482, -0.20249204337596893, 0.752843976020813, -0.6248321533203125, -0.586728036403656, -0.054611772298812866, 0.041534118354320526], [-0.3198753595352173, 0.48316410183906555, 0.024713456630706787, -0.2557888329029083, -0.23517292737960815, -0.13805468380451202, -0.46520644426345825, 0.7896670699119568, -0.8208546042442322, -0.8063609600067139, -0.49855875968933105, -0.5688982009887695], [-0.03492023050785065, 0.20860271155834198, -0.386180579662323, -0.07760640233755112, -0.212616965174675, -0.6434717774391174, -0.37199661135673523, -0.12920710444450378, -0.043811652809381485, -0.7025197148323059, -0.24019774794578552, -0.623198390007019], [0.0430704690515995, 0.48113203048706055, -0.4088059067726135, -0.6547906994819641, 0.11966690421104431, -0.08580856025218964, 0.3147972524166107, 0.35448455810546875, 0.13246329128742218, -0.7819523215293884, 0.05037745460867882, -0.5125314593315125], [0.3564995229244232, 0.08300599455833435, -0.05086744204163551, -0.5188084840774536, -0.16684457659721375, 0.18147683143615723, 0.170062854886055, -0.1572813242673874, 0.26024121046066284, -0.926047682762146, 0.0673285499215126, -0.611176609992981], [-0.15153653919696808, 0.06190308555960655, -0.18716855347156525, -0.26319509744644165, -0.1520644724369049, 0.2673913240432739, 0.20723719894886017, -0.46343961358070374, 0.5614286661148071, -0.8103371262550354, -0.03707319498062134, -0.39994949102401733], [0.0786665678024292, -0.23510073125362396, -0.40759027004241943, 0.35907575488090515, -0.037348948419094086, -0.17156004905700684, -0.11419977992773056, 0.21465511620044708, 0.20950286090373993, -0.13398954272270203, -0.24218954145908356, -0.5630755424499512], [-0.18272438645362854, 0.08882009238004684, -0.3918820321559906, -0.2943384051322937, 0.015918945893645287, -0.3211912214756012, -0.7493137121200562, 0.8278355002403259, 0.41908830404281616, -0.07138935476541519, -0.12253494560718536, -0.5373241305351257], [-0.0471380390226841, -0.950084388256073, -0.3811979591846466, 0.387952983379364, 0.10640094429254532, 0.05281659588217735, -0.005125589668750763, 0.5607830882072449, 0.42710816860198975, 0.19449026882648468, -0.5501999258995056, 0.4211008548736572], [-0.22831197082996368, 0.2743634581565857, 0.15929779410362244, -0.005712972022593021, 0.14173591136932373, 0.11943288147449493, 0.2770238220691681, 0.48066380620002747, -0.08628945052623749, 0.23273232579231262, -0.31598901748657227, -0.11339954286813736], [0.5309481024742126, 0.0034464134369045496, 0.6793679594993591, -0.13710655272006989, -0.10193459689617157, 0.23267041146755219, -0.06035524979233742, 0.1307869404554367, -0.015524829737842083, 0.34593361616134644, -0.11518669128417969, -0.11086632311344147], [-0.023728184401988983, -0.3875454366207123, 0.12244874984025955, 0.08157079666852951, -0.0736636072397232, 0.352488249540329, 0.5026630759239197, 0.3856862187385559, 0.8116046786308289, -0.4472923278808594, -0.11802318692207336, -0.02038976550102234], [-2.904221296310425, -0.4597975015640259, 1.6989792585372925, 0.29375842213630676, 1.213554859161377, -0.2703782021999359, -0.4536609351634979, 0.12997999787330627, 0.08006712794303894, -0.3812045454978943, 1.5817499160766602, -0.6799516677856445], [-0.05776813626289368, -0.13900187611579895, -0.2394910454750061, 0.1899213045835495, 0.07323561608791351, 0.34339025616645813, 0.24125908315181732, -0.06134605035185814, 0.020811010152101517, 0.10735942423343658, -0.0021296567283570766, -0.1808599829673767], [0.003939417656511068, 0.27936020493507385, 0.14556755125522614, -0.1288953274488449, 0.029625024646520615, 0.5868510007858276, 0.12710750102996826, 0.015309926122426987, 0.5040607452392578, -0.11721018701791763, -0.0007604746497236192, 0.2063807100057602], [-0.08441486209630966, 0.2122550904750824, -0.3877829313278198, -0.48562943935394287, 0.03294844552874565, -0.7355890870094299, -0.172785684466362, 0.4502998888492584, -0.7744048237800598, 0.25517091155052185, 0.6337747573852539, 0.08236943185329437], [-0.0385214127600193, -0.11670089513063431, 0.04581080749630928, -0.31600886583328247, -0.013444500975310802, -1.1198376417160034, 0.05900811776518822, 0.3292551636695862, 0.4457685649394989, -0.10219182819128036, 0.0026721637696027756, 0.08711553364992142], [-0.06435973942279816, 0.016423454508185387, 0.06780722737312317, -0.3093806803226471, -0.11910685151815414, 0.9403966069221497, 0.07761618494987488, 1.1021947860717773, -0.6626651287078857, 0.11774808913469315, -0.3210485875606537, -0.049598392099142075], [0.014926309697329998, -0.3052436113357544, 0.3499969244003296, -0.26542481780052185, -0.14708244800567627, -0.1648501753807068, -0.3136517107486725, -0.4437839984893799, -0.5627650022506714, -0.2259100377559662, -0.35550636053085327, -0.06125921010971069], [-0.4959438145160675, -0.21789734065532684, -0.18358342349529266, 0.40152883529663086, 0.1086467057466507, -1.08597993850708, 0.3661324679851532, -0.33155280351638794, -0.32495734095573425, -0.21629686653614044, -0.16411983966827393, 0.19422705471515656], [0.12858903408050537, 0.2299616038799286, -0.2924487888813019, -0.2834398150444031, -0.04389597848057747, -0.4790341556072235, -0.3670719265937805, 0.29058340191841125, -0.04059360921382904, -0.2778581380844116, -0.07562099397182465, -0.2794371545314789], [0.2549378275871277, -0.12621621787548065, 0.08241377025842667, 0.4944784641265869, 0.10022179037332535, -0.2229013890028, 0.05300307646393776, -0.03797076269984245, -0.24159735441207886, 0.039919331669807434, -0.056645236909389496, -0.21088974177837372], [0.43126195669174194, -0.387584388256073, -0.27045249938964844, 0.0356353260576725, -0.08402940630912781, -0.18813556432724, -0.39306166768074036, -0.03903503343462944, -0.08620543777942657, -0.45274096727371216, 0.2144133597612381, -0.07959522306919098], [0.11107880622148514, 0.03458251804113388, -0.26995542645454407, 0.15848174691200256, -0.3453245460987091, -0.01867346279323101, -0.20469383895397186, 0.28158631920814514, 0.17445196211338043, -0.3563538193702698, 0.18758118152618408, -0.518643856048584], [-0.08307795226573944, -0.1997697353363037, 0.036043547093868256, 0.06550175696611404, -0.3131915032863617, -0.08972104638814926, 0.18324120342731476, 0.025281110778450966, 0.035229090601205826, 0.027951737865805626, -0.0986291766166687, 0.07643738389015198], [0.17840076982975006, 0.18763405084609985, 0.27663418650627136, 0.3781740069389343, -0.05809324234724045, -1.1231735944747925, -0.5728737711906433, -0.03292272984981537, 0.1758900284767151, -0.10073504596948624, -0.32270297408103943, -0.10697320103645325], [0.13713638484477997, -0.22668582201004028, 0.39128798246383667, 0.29761698842048645, 0.11876699328422546, -0.47651275992393494, 0.0657220408320427, -0.11752314865589142, -0.2936929762363434, 0.03850838914513588, 0.44392630457878113, -0.13379497826099396], [0.13099470734596252, -0.09095436334609985, -0.006690111011266708, 0.03383979573845863, -0.08117277175188065, -0.015847377479076385, -0.06607893854379654, 0.5851251482963562, 0.35424086451530457, 0.11560040712356567, 0.10541757941246033, -0.6424219012260437], [0.04877317324280739, 0.31231969594955444, -0.5739765763282776, -0.09587841480970383, -0.0363818034529686, -0.30564695596694946, -0.2887616753578186, 0.311281681060791, 0.19279012084007263, -0.25483083724975586, -0.3068186938762665, -0.44045454263687134], [0.08116396516561508, 0.5026538968086243, 0.021458003669977188, -0.4918752610683441, 0.3246458172798157, 0.4891391694545746, 0.30228397250175476, 1.0345648527145386, 0.28605085611343384, -0.44238921999931335, -0.19349871575832367, -0.5691424608230591], [-0.13478827476501465, -0.008198710158467293, -0.16747280955314636, 0.14869524538516998, -0.022710775956511497, -0.21684306859970093, -0.2785980701446533, 0.180190309882164, 0.1468895673751831, -0.08011148124933243, -0.10763537883758545, -0.4370216429233551], [-0.7531929016113281, 0.1856164187192917, 0.7826172113418579, -0.6847779154777527, 0.13022689521312714, -0.12413710355758667, -0.24091434478759766, -0.40067604184150696, -0.1395612359046936, -0.40663692355155945, 0.5564149022102356, -0.8148876428604126]], "rec.bias_ih_l0": [0.1742420345544815, -0.5034703612327576, -0.46457439661026, 0.02812880650162697, 1.1730930805206299, -1.0576342344284058, -0.18755969405174255, 0.2937069535255432, -0.16162030398845673, 0.2690559923648834, 0.37296009063720703, -0.2518053948879242, 0.16670219600200653, 1.1453135013580322, 0.5526764988899231, 0.22297948598861694, 0.7300649285316467, 1.337261438369751, 0.5843508839607239, 0.05243407562375069, 0.3203478753566742, 0.324826180934906, 0.20432686805725098, 0.4864239990711212, -0.05696520954370499, 0.09511207044124603, 0.08111211657524109, 0.09034008532762527, -0.013365874998271465, -0.14698462188243866, 0.008639520965516567, -0.06853114813566208, -0.14030684530735016, -0.09800814837217331, -0.13137778639793396, -0.1606968492269516, 0.6450695991516113, 0.015503116883337498, 0.5583814382553101, 0.17199084162712097, -0.7201441526412964, -0.0379183329641819, 0.0687093660235405, 0.6616685390472412, 0.36949658393859863, 0.217653289437294, 0.5340571403503418, 0.15268796682357788], "rec.bias_hh_l0": [0.14329533278942108, -0.7015805840492249, -0.10852333158254623, 0.010253282263875008, 1.1730930805206299, -0.8166927695274353, -0.5092679262161255, 0.3339029550552368, -0.1380143165588379, 0.059422023594379425, 0.3009796738624573, 0.03750559315085411, 0.04900312423706055, 0.99028480052948, 0.5419880747795105, 0.22638128697872162, 0.48661836981773376, 1.3621060848236084, 0.5410520434379578, 0.24757814407348633, 0.6641890406608582, 0.2703230381011963, 0.0020661496091634035, 0.6370478868484497, 0.14248418807983398, -0.019104434177279472, 0.013166366145014763, -0.08536109328269958, -0.3653038740158081, -0.1819940209388733, -0.08130010217428207, -0.20559383928775787, -0.487395316362381, -0.05649743601679802, 0.08107255399227142, -0.18492108583450317, 0.6679072976112366, 0.15397144854068756, 0.8069309592247009, 0.2152455747127533, -0.46310025453567505, 0.012193779461085796, 0.16027818620204926, 0.7255719304084778, 0.495234876871109, -0.054417144507169724, 0.5827016830444336, 0.13193099200725555], "lin.weight": [[-0.10828080773353577, -0.2556587755680084, 0.06845509260892868, -0.07732588052749634, 1.0359009504318237, -0.258415549993515, -0.20792044699192047, -0.13600963354110718, -0.335551381111145, -0.07712661474943161, -0.5330833196640015, -0.011252815835177898]], "lin.bias": [-0.15300031006336212]}}